// This code conforms with the UFC specification version 2018.1.0
// and was automatically generated by FFC version 2019.1.0.
//
// This code was generated with the following parameters:
//

//  add_tabulate_tensor_timing:     False
//  convert_exceptions_to_warnings: False
//  cpp_optimize:                   True
//  cpp_optimize_flags:             '-O2'
//  epsilon:                        1e-14
//  error_control:                  False
//  external_include_dirs:          ''
//  external_includes:              ''
//  external_libraries:             ''
//  external_library_dirs:          ''
//  form_postfix:                   False
//  format:                         'ufc'
//  generate_dummy_tabulate_tensor: False
//  max_signature_length:           0
//  no-evaluate_basis_derivatives:  True
//  optimize:                       True
//  precision:                      None
//  quadrature_degree:              None
//  quadrature_rule:                None
//  representation:                 'auto'
//  split:                          False

#include "ffc_form_e8c399db922ccc4f0c7295fb2e3924fa7fa10b78.h"

// Based on https://gcc.gnu.org/wiki/Visibility
#if defined _WIN32 || defined __CYGWIN__
    #ifdef __GNUC__
        #define DLL_EXPORT __attribute__ ((dllexport))
    #else
        #define DLL_EXPORT __declspec(dllexport)
    #endif
#else
    #define DLL_EXPORT __attribute__ ((visibility ("default")))
#endif

ffc_form_e8c399db922ccc4f0c7295fb2e3924fa7fa10b78_cell_integral_main_otherwise::ffc_form_e8c399db922ccc4f0c7295fb2e3924fa7fa10b78_cell_integral_main_otherwise() : ufc::cell_integral()
{

}

ffc_form_e8c399db922ccc4f0c7295fb2e3924fa7fa10b78_cell_integral_main_otherwise::~ffc_form_e8c399db922ccc4f0c7295fb2e3924fa7fa10b78_cell_integral_main_otherwise()
{

}

const std::vector<bool> & ffc_form_e8c399db922ccc4f0c7295fb2e3924fa7fa10b78_cell_integral_main_otherwise::enabled_coefficients() const
{
static const std::vector<bool> enabled({true, true, true, true, true, true});
return enabled;
}

void ffc_form_e8c399db922ccc4f0c7295fb2e3924fa7fa10b78_cell_integral_main_otherwise::tabulate_tensor(double * A,
                                    const double * const * w,
                                    const double * coordinate_dofs,
                                    int cell_orientation) const
{
    // This function was generated using 'uflacs' representation
    // with the following integrals metadata:
    // 
    // num_cells:         None
    // optimize:          True
    // precision:         16
    // quadrature_degree: 13
    // quadrature_rule:   'default'
    // representation:    'uflacs'
    // 
    // and the following integral 0 metadata:
    // 
    // estimated_polynomial_degree: 13
    // optimize:                    True
    // precision:                   16
    // quadrature_degree:           13
    // quadrature_rule:             'default'
    // representation:              'uflacs'
    // Quadrature rules
    alignas(32) static const double weights49[49] = { 0.003623466079725794, 0.00715464377909615, 0.008247603013529583, 0.006935542753734078, 0.004297910087982426, 0.001774485071438052, 0.0003375907567113747, 0.007827186648495099, 0.01545501766273407, 0.01781596040067579, 0.01498172921938941, 0.009284078756888543, 0.003833132573484685, 0.000729242610651565, 0.01068501060131498, 0.02109787781815244, 0.02432083637489712, 0.02045178462250981, 0.0126738360020928, 0.005232667115687635, 0.0009955000916249657, 0.01169603676441937, 0.02309417967090931, 0.02662209772138336, 0.02238695250460707, 0.01387304677156393, 0.005727787200652747, 0.001089695284831587, 0.01068501060131498, 0.02109787781815245, 0.02432083637489713, 0.02045178462250982, 0.0126738360020928, 0.005232667115687637, 0.0009955000916249662, 0.007827186648495099, 0.01545501766273407, 0.01781596040067579, 0.01498172921938941, 0.009284078756888543, 0.003833132573484685, 0.000729242610651565, 0.003623466079725802, 0.007154643779096167, 0.008247603013529604, 0.006935542753734095, 0.004297910087982437, 0.001774485071438057, 0.0003375907567113755 };
    // Precomputed values of basis functions and precomputations
    // FE* dimensions: [entities][points][dofs]
    // PI* dimensions: [entities][dofs][dofs] or [entities][dofs]
    // PM* dimensions: [entities][dofs][dofs]
    alignas(32) static const double FE10_C0_D01_Q49[1][1][2] = { { { -1.0, 1.0 } } };
    alignas(32) static const double FE10_C0_Q49[1][49][3] =
        { { { 0.9526465811852267, 0.02487403237606073, 0.0224793864387125 },
            { 0.8627930312234321, 0.02252791561566352, 0.1146790531609042 },
            { 0.7155274328665678, 0.01868274434884274, 0.2657898227845895 },
            { 0.5332307311739594, 0.01392289515659603, 0.4528463736694446 },
            { 0.343651813106453, 0.008972904006716695, 0.6473752828868302 },
            { 0.1756542791952545, 0.004586412541637936, 0.8197593082631076 },
            { 0.05483090095558918, 0.00143165958133301, 0.9437374394630776 },
            { 0.8511913165416183, 0.1263292970196692, 0.0224793864387125 },
            { 0.7709070190923345, 0.1144139277467613, 0.1146790531609042 },
            { 0.6393249602025477, 0.09488521701286287, 0.2657898227845895 },
            { 0.47644255178423, 0.07071107454632534, 0.4528463736694446 },
            { 0.3070534708328747, 0.04557124628029494, 0.6473752828868302 },
            { 0.1569473927869026, 0.02329329894998982, 0.8197593082631076 },
            { 0.04899150187836189, 0.007271058658560332, 0.9437374394630778 },
            { 0.6871213074732971, 0.2903993060879904, 0.0224793864387125 },
            { 0.6223120802632944, 0.2630088665758011, 0.1146790531609042 },
            { 0.5160929088651122, 0.2181172683502983, 0.2657898227845895 },
            { 0.3846066363176857, 0.1625469900128697, 0.4528463736694446 },
            { 0.2478678744046879, 0.1047568427084817, 0.6473752828868302 },
            { 0.1266952512796091, 0.05354544045728332, 0.8197593082631076 },
            { 0.03954822396745462, 0.0167143365694676, 0.9437374394630778 },
            { 0.4887603067806436, 0.4887603067806437, 0.02247938643871252 },
            { 0.4426604734195479, 0.4426604734195478, 0.1146790531609042 },
            { 0.3671050886077052, 0.3671050886077054, 0.2657898227845895 },
            { 0.2735768131652776, 0.2735768131652778, 0.4528463736694446 },
            { 0.1763123585565848, 0.1763123585565848, 0.6473752828868302 },
            { 0.09012034586844617, 0.09012034586844622, 0.8197593082631074 },
            { 0.02813128026846108, 0.02813128026846114, 0.9437374394630778 },
            { 0.2903993060879904, 0.6871213074732971, 0.0224793864387125 },
            { 0.2630088665758012, 0.6223120802632945, 0.1146790531609042 },
            { 0.2181172683502982, 0.5160929088651123, 0.2657898227845895 },
            { 0.1625469900128696, 0.3846066363176858, 0.4528463736694446 },
            { 0.1047568427084817, 0.2478678744046879, 0.6473752828868302 },
            { 0.05354544045728326, 0.1266952512796092, 0.8197593082631076 },
            { 0.01671433656946754, 0.03954822396745468, 0.9437374394630778 },
            { 0.1263292970196691, 0.8511913165416183, 0.0224793864387125 },
            { 0.1144139277467613, 0.7709070190923345, 0.1146790531609042 },
            { 0.09488521701286272, 0.6393249602025478, 0.2657898227845895 },
            { 0.07071107454632521, 0.4764425517842301, 0.4528463736694446 },
            { 0.04557124628029489, 0.3070534708328747, 0.6473752828868302 },
            { 0.02329329894998977, 0.1569473927869027, 0.8197593082631076 },
            { 0.007271058658560276, 0.04899150187836195, 0.9437374394630778 },
            { 0.02487403237606073, 0.9526465811852267, 0.0224793864387125 },
            { 0.02252791561566367, 0.8627930312234321, 0.1146790531609042 },
            { 0.01868274434884269, 0.7155274328665678, 0.2657898227845895 },
            { 0.01392289515659611, 0.5332307311739592, 0.4528463736694446 },
            { 0.008972904006716695, 0.343651813106453, 0.6473752828868302 },
            { 0.00458641254163788, 0.1756542791952546, 0.8197593082631076 },
            { 0.001431659581332973, 0.05483090095558925, 0.9437374394630778 } } };
    alignas(32) static const double FE27_C0_D01_Q49[1][49][5] =
        { { { -2.810586324740912, -0.9100824542451498, 0.09949612950423206, 3.720668778986065, -0.0994961295042404 },
            { -2.451172124893734, -0.5412837873563826, 0.09011166246264354, 2.99245591225012, -0.09011166246265276 },
            { -1.862109731466277, 0.06315929113835921, 0.07473097739536068, 1.798950440327922, -0.07473097739537074 },
            { -1.132922924695843, 0.8113854946777805, 0.05569158062637274, 0.3215374300180676, -0.05569158062638453 },
            { -0.3746072524258177, 1.589501131547324, 0.03589161602685363, -1.2148938791215, -0.03589161602686688 },
            { 0.2973828832189764, 2.279037233052433, 0.01834565016653632, -2.576420116271403, -0.01834565016655123 },
            { 0.7806763961776375, 2.774949757852314, 0.005726638325314226, -3.555626154029944, -0.005726638325330429 },
            { -2.404765266166478, -0.9100824542451497, 0.5053171880786658, 3.314847720411632, -0.5053171880786754 },
            { -2.083628076369342, -0.5412837873563824, 0.4576557109870349, 2.624911863725729, -0.4576557109870447 },
            { -1.557299840810196, 0.06315929113835936, 0.3795408680514409, 1.494140549671841, -0.3795408680514518 },
            { -0.9057702071369257, 0.8113854946777805, 0.2828442981852897, 0.09438471245915028, -0.2828442981853017 },
            { -0.2282138833315046, 1.589501131547324, 0.1822849851211664, -1.361287248215813, -0.1822849851211799 },
            { 0.3722104288523839, 2.279037233052434, 0.09317319579994313, -2.65124766190481, -0.09317319579995867 },
            { 0.8040339924865468, 2.774949757852314, 0.02908423463422315, -3.578983750338853, -0.02908423463423965 },
            { -1.748485229893193, -0.9100824542451499, 1.16159722435195, 2.658567684138348, -1.161597224351961 },
            { -1.489248321053183, -0.5412837873563823, 1.052035466303193, 2.03053210840957, -1.052035466303205 },
            { -1.064371635460454, 0.06315929113835932, 0.8724690734011822, 1.0012123443221, -0.8724690734011941 },
            { -0.5384265452707481, 0.8113854946777805, 0.6501879600514665, -0.2729589494070268, -0.6501879600514793 },
            { 0.008528502381242668, 1.589501131547324, 0.4190273708339129, -1.59802963392856, -0.4190273708339269 },
            { 0.4932189948815578, 2.279037233052433, 0.2141817618291169, -2.772256227933984, -0.2141817618291324 },
            { 0.8418071041301759, 2.774949757852314, 0.06685734627785221, -3.616756861982482, -0.06685734627786862 },
            { -0.9550412271225792, -0.9100824542451496, 1.955041227122563, 1.865123681367735, -1.955041227122576 },
            { -0.7706418936781961, -0.5412837873563823, 1.77064189367818, 1.311925681034584, -1.770641893678193 },
            { -0.4684203544308258, 0.06315929113835939, 1.468420354430809, 0.4052610632924724, -1.468420354430823 },
            { -0.09430725266111584, 0.8113854946777805, 1.094307252661098, -0.7170782420166586, -1.094307252661112 },
            { 0.2947505657736552, 1.589501131547324, 0.7052494342263245, -1.884251697320972, -0.7052494342263392 },
            { 0.6395186165262096, 2.279037233052433, 0.3604813834737682, -2.918555849578635, -0.3604813834737839 },
            { 0.8874748789261502, 2.774949757852314, 0.1125251210738262, -3.662424636778457, -0.1125251210738428 },
            { -0.1615972243519662, -0.9100824542451496, 2.748485229893176, 1.071679678597123, -2.748485229893191 },
            { -0.05203546630321002, -0.5412837873563823, 2.489248321053165, 0.5933192536595991, -2.48924832105318 },
            { 0.1275309265988019, 0.06315929113835939, 2.064371635460436, -0.1906902177371544, -2.064371635460451 },
            { 0.3498120399485161, 0.8113854946777805, 1.538426545270729, -1.16119753462629, -1.538426545270744 },
            { 0.5809726291660676, 1.589501131547324, 0.9914714976187363, -2.170473760713384, -0.9914714976187514 },
            { 0.7858182381708613, 2.279037233052433, 0.5067810051184196, -3.064855471223287, -0.5067810051184356 },
            { 0.9331426537221242, 2.774949757852314, 0.1581928958698006, -3.708092411574431, -0.1581928958698169 },
            { 0.4946828119213177, -0.9100824542451498, 3.40476526616646, 0.4153996423238397, -3.404765266166476 },
            { 0.5423442890129493, -0.5412837873563824, 3.083628076369324, -0.001060501656559462, -3.08362807636934 },
            { 0.6204591319485435, 0.06315929113835923, 2.557299840810177, -0.6836184230868956, -2.557299840810193 },
            { 0.7171557018146937, 0.8113854946777804, 1.905770207136906, -1.528541196492467, -1.905770207136921 },
            { 0.8177150148788147, 1.589501131547323, 1.228213883331483, -2.407216146426131, -1.228213883331498 },
            { 0.9068268042000353, 2.279037233052433, 0.6277895711475932, -3.185864037252461, -0.6277895711476094 },
            { 0.9709157653657533, 2.774949757852314, 0.1959660075134292, -3.74586552321806, -0.1959660075134459 },
            { 0.9005038704957508, -0.9100824542451497, 3.810586324740892, 0.009578583749407284, -3.81058632474091 },
            { 0.9098883375373393, -0.5412837873563824, 3.451172124893714, -0.3686045501809488, -3.451172124893731 },
            { 0.9252690226046233, 0.06315929113835927, 2.862109731466257, -0.9884283137429751, -2.862109731466273 },
            { 0.9443084193736099, 0.8113854946777804, 2.132922924695821, -1.755693914051383, -2.132922924695838 },
            { 0.9641083839731275, 1.589501131547324, 1.374607252425795, -2.553609515520444, -1.374607252425811 },
            { 0.9816543498334428, 2.279037233052433, 0.7026171167810003, -3.260691582885868, -0.7026171167810168 },
            { 0.9942733616746625, 2.774949757852314, 0.2193236038223384, -3.769223119526969, -0.2193236038223551 } } };
    alignas(32) static const double FE27_C0_D10_Q49[1][49][5] =
        { { { -2.810586324740908, -0.9005038704957609, 0.08991754575484807, -0.08991754575484807, 3.711090195236669 },
            { -2.451172124893729, -0.9098883375373482, 0.4587162126436155, -0.4587162126436155, 3.361060462431077 },
            { -1.862109731466272, -0.925269022604631, 1.063159291138356, -1.063159291138356, 2.787378754070903 },
            { -1.132922924695838, -0.9443084193736174, 1.811385494677777, -1.811385494677777, 2.077231344069455 },
            { -0.3746072524258129, -0.9641083839731343, 2.589501131547319, -2.589501131547319, 1.338715636398947 },
            { 0.2973828832189808, -0.9816543498334497, 3.279037233052426, -3.279037233052426, 0.6842714666144689 },
            { 0.7806763961776415, -0.9942733616746695, 3.774949757852305, -3.774949757852305, 0.2135969654970279 },
            { -2.404765266166474, -0.4946828119213265, 0.0899175457548483, -0.0899175457548483, 2.8994480780878 },
            { -2.083628076369338, -0.5423442890129569, 0.4587162126436156, -0.4587162126436156, 2.625972365382295 },
            { -1.557299840810191, -0.6204591319485502, 1.063159291138357, -1.063159291138357, 2.177758972758741 },
            { -0.9057702071369205, -0.7171557018147, 1.811385494677777, -1.811385494677777, 1.622925908951621 },
            { -0.2282138833314998, -0.8177150148788209, 2.589501131547318, -2.589501131547318, 1.045928898210321 },
            { 0.3722104288523886, -0.9068268042000422, 3.279037233052426, -3.279037233052426, 0.5346163753476537 },
            { 0.8040339924865508, -0.9709157653657604, 3.774949757852306, -3.774949757852306, 0.1668817728792095 },
            { -1.748485229893189, 0.1615972243519587, 0.08991754575484849, -0.08991754575484849, 1.58688800554123 },
            { -1.489248321053178, 0.05203546630320232, 0.4587162126436156, -0.4587162126436156, 1.437212854749976 },
            { -1.064371635460449, -0.127530926598808, 1.063159291138356, -1.063159291138356, 1.191902562059257 },
            { -0.538426545270743, -0.3498120399485221, 1.811385494677777, -1.811385494677777, 0.888238585219265 },
            { 0.008528502381247768, -0.5809726291660737, 2.589501131547318, -2.589501131547318, 0.572444126784826 },
            { 0.4932189948815626, -0.7858182381708682, 3.279037233052426, -3.279037233052426, 0.2925992432893055 },
            { 0.84180710413018, -0.9331426537221315, 3.774949757852305, -3.774949757852305, 0.09133554959195127 },
            { -0.9550412271225741, 0.9550412271225732, 0.08991754575484885, -0.08991754575484885, 0.0 },
            { -0.7706418936781909, 0.7706418936781902, 0.4587162126436158, -0.4587162126436158, 0.0 },
            { -0.4684203544308203, 0.4684203544308205, 1.063159291138356, -1.063159291138356, 0.0 },
            { -0.09430725266111019, 0.09430725266111041, 1.811385494677777, -1.811385494677777, 0.0 },
            { 0.2947505657736605, -0.2947505657736612, 2.589501131547318, -2.589501131547318, 0.0 },
            { 0.6395186165262142, -0.639518616526216, 3.279037233052425, -3.279037233052425, 0.0 },
            { 0.8874748789261543, -0.8874748789261572, 3.774949757852305, -3.774949757852305, 0.0 },
            { -0.1615972243519597, 1.748485229893188, 0.08991754575484888, -0.08991754575484888, -1.586888005541228 },
            { -0.05203546630320374, 1.489248321053177, 0.458716212643616, -0.458716212643616, -1.437212854749974 },
            { 0.1275309265988084, 1.064371635460449, 1.063159291138356, -1.063159291138356, -1.191902562059258 },
            { 0.3498120399485224, 0.5384265452707427, 1.811385494677777, -1.811385494677777, -0.8882385852192651 },
            { 0.5809726291660732, -0.008528502381248434, 2.589501131547318, -2.589501131547318, -0.5724441267848247 },
            { 0.7858182381708664, -0.4932189948815646, 3.279037233052426, -3.279037233052426, -0.2925992432893019 },
            { 0.9331426537221285, -0.841807104130183, 3.774949757852305, -3.774949757852305, -0.09133554959194556 },
            { 0.4946828119213257, 2.404765266166473, 0.08991754575484907, -0.08991754575484907, -2.899448078087799 },
            { 0.5423442890129572, 2.083628076369338, 0.458716212643616, -0.458716212643616, -2.625972365382295 },
            { 0.620459131948551, 1.557299840810192, 1.063159291138356, -1.063159291138356, -2.177758972758743 },
            { 0.7171557018147003, 0.9057702071369207, 1.811385494677776, -1.811385494677776, -1.622925908951621 },
            { 0.8177150148788206, 0.2282138833314986, 2.589501131547318, -2.589501131547318, -1.045928898210319 },
            { 0.9068268042000405, -0.3722104288523906, 3.279037233052426, -3.279037233052426, -0.5346163753476499 },
            { 0.9709157653657576, -0.804033992486554, 3.774949757852305, -3.774949757852305, -0.1668817728792037 },
            { 0.9005038704957602, 2.810586324740908, 0.08991754575484907, -0.08991754575484907, -3.711090195236668 },
            { 0.9098883375373481, 2.451172124893729, 0.4587162126436158, -0.4587162126436158, -3.361060462431078 },
            { 0.9252690226046316, 1.862109731466272, 1.063159291138356, -1.063159291138356, -2.787378754070904 },
            { 0.9443084193736171, 1.132922924695837, 1.811385494677776, -1.811385494677776, -2.077231344069455 },
            { 0.9641083839731335, 0.3746072524258117, 2.589501131547317, -2.589501131547317, -1.338715636398945 },
            { 0.9816543498334481, -0.297382883218983, 3.279037233052426, -3.279037233052426, -0.6842714666144653 },
            { 0.9942733616746668, -0.7806763961776448, 3.774949757852305, -3.774949757852305, -0.2135969654970222 } } };
    alignas(32) static const double FE27_C0_Q49[1][49][6] =
        { { { 0.8624244361025749, -0.02363659740277004, -0.02146874080939058, 0.002236611944281942, 0.08565964255192408, 0.09478464761337956 },
            { 0.6260305982320046, -0.02151290165169069, -0.08837648269314125, 0.01033392012997213, 0.3957771515781188, 0.07774771440473618 },
            { 0.3084315815026736, -0.01798465447603438, -0.1245013629928625, 0.01986273323843483, 0.760719638316469, 0.05347206441131927 },
            { 0.03543929416267125, -0.01353520113751301, -0.04270669737831205, 0.02521973033057756, 0.9658864117649358, 0.02969646225764032 },
            { -0.107458675803748, -0.008811877994089256, 0.1908142308987769, 0.02323534507865828, 0.8898867588974484, 0.01233421892295334 },
            { -0.1139454275960456, -0.004544342181633742, 0.5242513387049098, 0.01503901749016908, 0.5759769216262263, 0.003222491956373922 },
            { -0.04881804555638587, -0.001427560283019344, 0.8375432698255753, 0.005404442989879688, 0.2069838962851253, 0.0003139967388247464 },
            { 0.5978619981700886, -0.09441111444870165, -0.02146874080939058, 0.01135922034494403, 0.07653703415126205, 0.4301216025917975 },
            { 0.4176882450793233, -0.08823283402187909, -0.08837648269314127, 0.05248352360967478, 0.3536275480984162, 0.352809999927606 },
            { 0.1781478492734307, -0.07687880819770682, -0.1245013629928625, 0.1008781000589045, 0.6797042714959993, 0.2426499503622346 },
            { -0.02244754148289256, -0.06071096241933347, -0.04270669737831205, 0.1280850147462927, 0.8630211273492207, 0.1347590591850246 },
            { -0.1184898029318446, -0.04141776930521646, 0.1908142308987769, 0.1180067938088454, 0.7951153101672612, 0.05597123736217717 },
            { -0.10768242458169, -0.02220814339804264, 0.5242513387049098, 0.07637959453763746, 0.514636344578758, 0.01462329015842717 },
            { -0.04419116736576674, -0.007165322070527858, 0.8375432698255754, 0.02744788112246186, 0.184940458152543, 0.001424880335714176 },
            { 0.2571500748943296, -0.1217357921352178, -0.02146874080939055, 0.02611199289234352, 0.06178426160386259, 0.7981582035540725 },
            { 0.1522325702199639, -0.124661538780826, -0.08837648269314125, 0.1206464311673418, 0.2854646405407491, 0.6546943795459123 },
            { 0.01661087229659385, -0.1229669828451063, -0.1245013629928625, 0.2318934004043381, 0.5486889711505657, 0.4502751019864709 },
            { -0.08876210691847655, -0.1097039420883819, -0.04270669737831206, 0.2944352599128458, 0.6966708821826675, 0.250066604289657 },
            { -0.1249909080808916, -0.08280885051998271, 0.1908142308987769, 0.2712679627309381, 0.6418541412451685, 0.1038634237259904 },
            { -0.09459187788600246, -0.04781121206975442, 0.5242513387049098, 0.1755774929196237, 0.4154384461967717, 0.02713581213445141 },
            { -0.03642009992949465, -0.01615559847555273, 0.8375432698255754, 0.06309578078557336, 0.1492925584894315, 0.002644089304466893 },
            { -0.01098703181202573, -0.01098703181202582, -0.02146874080939056, 0.04394812724810309, 0.04394812724810303, 0.9555465499372358 },
            { -0.05076388396351129, -0.05076388396351145, -0.08837648269314127, 0.2030555358540455, 0.2030555358540455, 0.783793178912073 },
            { -0.09757279644436297, -0.09757279644436309, -0.1245013629928625, 0.390291185777452, 0.3902911857774519, 0.5390645843266845 },
            { -0.1238882677619391, -0.1238882677619393, -0.04270669737831206, 0.4955530710477568, 0.4955530710477566, 0.299377090806677 },
            { -0.1141402629970133, -0.1141402629970135, 0.1908142308987769, 0.4565610519880533, 0.4565610519880532, 0.1243441911191429 },
            { -0.07387699238954938, -0.07387699238954956, 0.5242513387049098, 0.2955079695581977, 0.2955079695581976, 0.03248670695779345 },
            { -0.02654854240937558, -0.0265485424093757, 0.8375432698255754, 0.1061941696375024, 0.1061941696375024, 0.003165475718170865 },
            { -0.1217357921352177, 0.2571500748943295, -0.02146874080939058, 0.06178426160386262, 0.02611199289234346, 0.7981582035540725 },
            { -0.1246615387808259, 0.1522325702199635, -0.0883764826931413, 0.285464640540749, 0.1206464311673419, 0.6546943795459127 },
            { -0.1229669828451062, 0.01661087229659375, -0.1245013629928625, 0.5486889711505658, 0.231893400404338, 0.4502751019864709 },
            { -0.1097039420883817, -0.08876210691847676, -0.04270669737831208, 0.6966708821826676, 0.2944352599128457, 0.250066604289657 },
            { -0.08280885051998249, -0.1249909080808917, 0.1908142308987769, 0.6418541412451685, 0.271267962730938, 0.1038634237259904 },
            { -0.04781121206975424, -0.09459187788600262, 0.5242513387049098, 0.4154384461967717, 0.1755774929196236, 0.02713581213445141 },
            { -0.0161555984755526, -0.03642009992949479, 0.8375432698255754, 0.1492925584894316, 0.06309578078557325, 0.002644089304466893 },
            { -0.09441111444870155, 0.5978619981700884, -0.02146874080939055, 0.07653703415126216, 0.01135922034494398, 0.4301216025917975 },
            { -0.08823283402187897, 0.4176882450793232, -0.0883764826931413, 0.3536275480984163, 0.05248352360967472, 0.352809999927606 },
            { -0.07687880819770654, 0.1781478492734306, -0.1245013629928625, 0.6797042714959995, 0.1008781000589044, 0.2426499503622344 },
            { -0.06071096241933321, -0.02244754148289271, -0.04270669737831209, 0.8630211273492209, 0.1280850147462926, 0.1347590591850245 },
            { -0.04141776930521627, -0.1184898029318448, 0.1908142308987769, 0.7951153101672613, 0.1180067938088453, 0.05597123736217716 },
            { -0.02220814339804247, -0.1076824245816902, 0.5242513387049098, 0.5146363445787581, 0.0763795945376374, 0.01462329015842717 },
            { -0.007165322070527736, -0.04419116736576686, 0.8375432698255754, 0.1849404581525431, 0.02744788112246175, 0.001424880335714176 },
            { -0.02363659740277012, 0.8624244361025746, -0.02146874080939055, 0.08565964255192408, 0.002236611944281887, 0.09478464761337989 },
            { -0.02151290165169072, 0.6260305982320042, -0.0883764826931413, 0.3957771515781188, 0.01033392012997215, 0.07774771440473678 },
            { -0.01798465447603422, 0.3084315815026734, -0.1245013629928625, 0.760719638316469, 0.01986273323843478, 0.05347206441131927 },
            { -0.01353520113751291, 0.03543929416267094, -0.04270669737831209, 0.9658864117649357, 0.02521973033057774, 0.02969646225764054 },
            { -0.008811877994089076, -0.1074586758037482, 0.1908142308987768, 0.8898867588974483, 0.02323534507865836, 0.0123342189229534 },
            { -0.004544342181633569, -0.1139454275960458, 0.5242513387049098, 0.5759769216262263, 0.01503901749016903, 0.003222491956373922 },
            { -0.001427560283019225, -0.04881804555638599, 0.8375432698255754, 0.2069838962851253, 0.005404442989879615, 0.0003139967388247705 } } };
    // Unstructured piecewise computations
    const double J_c0 = coordinate_dofs[0] * FE10_C0_D01_Q49[0][0][0] + coordinate_dofs[2] * FE10_C0_D01_Q49[0][0][1];
    const double J_c3 = coordinate_dofs[1] * FE10_C0_D01_Q49[0][0][0] + coordinate_dofs[5] * FE10_C0_D01_Q49[0][0][1];
    const double J_c1 = coordinate_dofs[0] * FE10_C0_D01_Q49[0][0][0] + coordinate_dofs[4] * FE10_C0_D01_Q49[0][0][1];
    const double J_c2 = coordinate_dofs[1] * FE10_C0_D01_Q49[0][0][0] + coordinate_dofs[3] * FE10_C0_D01_Q49[0][0][1];
    const double w5_d1_c2 = w[5][12] * FE10_C0_D01_Q49[0][0][0] + w[5][14] * FE10_C0_D01_Q49[0][0][1];
    double w5_d0_c2 = 0.0;
    for (int ic = 0; ic < 2; ++ic)
        w5_d0_c2 += w[5][ic + 12] * FE10_C0_D01_Q49[0][0][ic];
    const double J_c0 = coordinate_dofs[0] * FE10_C0_D01_Q49[0][0][0] + coordinate_dofs[2] * FE10_C0_D01_Q49[0][0][1];
    const double J_c3 = coordinate_dofs[1] * FE10_C0_D01_Q49[0][0][0] + coordinate_dofs[5] * FE10_C0_D01_Q49[0][0][1];
    const double J_c1 = coordinate_dofs[0] * FE10_C0_D01_Q49[0][0][0] + coordinate_dofs[4] * FE10_C0_D01_Q49[0][0][1];
    const double J_c2 = coordinate_dofs[1] * FE10_C0_D01_Q49[0][0][0] + coordinate_dofs[3] * FE10_C0_D01_Q49[0][0][1];
    alignas(32) double sp[19];
    sp[0] = J_c0 * J_c3;
    sp[1] = J_c1 * J_c2;
    sp[2] = sp[0] + -1 * sp[1];
    sp[3] = J_c0 / sp[2];
    sp[4] = -1 * J_c1 / sp[2];
    sp[5] = J_c3 / sp[2];
    sp[6] = -1 * J_c2 / sp[2];
    sp[7] = w5_d1_c2 * sp[3];
    sp[8] = w5_d0_c2 * sp[4];
    sp[9] = sp[7] + sp[8];
    sp[10] = w5_d0_c2 * sp[5];
    sp[11] = w5_d1_c2 * sp[6];
    sp[12] = sp[10] + sp[11];
    sp[13] = sp[9] * w[4][0];
    sp[14] = sp[12] * w[4][0];
    sp[15] = J_c0 * J_c3;
    sp[16] = J_c1 * J_c2;
    sp[17] = sp[15] + -1 * sp[16];
    sp[18] = std::abs(sp[17]);
    alignas(32) double BF0[6] = {};
    alignas(32) double BF1[5] = {};
    alignas(32) double BF2[5] = {};
    alignas(32) double BF3[6] = {};
    alignas(32) double BF4[5] = {};
    alignas(32) double BF5[5] = {};
    alignas(32) double BF6[3] = {};
    for (int iq = 0; iq < 49; ++iq)
    {
        // Quadrature loop body setup (num_points=49)
        // Unstructured varying computations for num_points=49
        const double w5_d1_c1 = w[5][6] * FE27_C0_D01_Q49[0][iq][0] + w[5][8] * FE27_C0_D01_Q49[0][iq][1] + w[5][9] * FE27_C0_D01_Q49[0][iq][2] + w[5][10] * FE27_C0_D01_Q49[0][iq][3] + w[5][11] * FE27_C0_D01_Q49[0][iq][4];
        const double w5_d0_c1 = w[5][6] * FE27_C0_D10_Q49[0][iq][0] + w[5][7] * FE27_C0_D10_Q49[0][iq][1] + w[5][9] * FE27_C0_D10_Q49[0][iq][2] + w[5][10] * FE27_C0_D10_Q49[0][iq][3] + w[5][11] * FE27_C0_D10_Q49[0][iq][4];
        const double w5_d0_c0 = w[5][0] * FE27_C0_D10_Q49[0][iq][0] + w[5][1] * FE27_C0_D10_Q49[0][iq][1] + w[5][3] * FE27_C0_D10_Q49[0][iq][2] + w[5][4] * FE27_C0_D10_Q49[0][iq][3] + w[5][5] * FE27_C0_D10_Q49[0][iq][4];
        const double w5_d1_c0 = w[5][0] * FE27_C0_D01_Q49[0][iq][0] + w[5][2] * FE27_C0_D01_Q49[0][iq][1] + w[5][3] * FE27_C0_D01_Q49[0][iq][2] + w[5][4] * FE27_C0_D01_Q49[0][iq][3] + w[5][5] * FE27_C0_D01_Q49[0][iq][4];
        double w5_c2 = 0.0;
        for (int ic = 0; ic < 3; ++ic)
            w5_c2 += w[5][ic + 12] * FE10_C0_Q49[0][iq][ic];
        double w5_c0 = 0.0;
        for (int ic = 0; ic < 6; ++ic)
            w5_c0 += w[5][ic] * FE27_C0_Q49[0][iq][ic];
        double w5_c1 = 0.0;
        for (int ic = 0; ic < 6; ++ic)
            w5_c1 += w[5][ic + 6] * FE27_C0_Q49[0][iq][ic];
        double w0 = 0.0;
        for (int ic = 0; ic < 3; ++ic)
            w0 += w[0][ic] * FE10_C0_Q49[0][iq][ic];
        alignas(32) double sv49[77];
        sv49[0] = w5_d1_c1 * sp[3];
        sv49[1] = w5_d0_c1 * sp[4];
        sv49[2] = sv49[0] + sv49[1];
        sv49[3] = w5_d0_c0 * sp[5];
        sv49[4] = w5_d1_c0 * sp[6];
        sv49[5] = sv49[3] + sv49[4];
        sv49[6] = sv49[2] + sv49[5];
        sv49[7] = w5_c2 + w[2][0];
        sv49[8] = sv49[6] * sv49[7];
        sv49[9] = sv49[7] * sp[3];
        sv49[10] = sv49[7] * sp[4];
        sv49[11] = sv49[7] * sp[5];
        sv49[12] = sv49[7] * sp[6];
        sv49[13] = sv49[9] * w[4][0];
        sv49[14] = sv49[10] * w[4][0];
        sv49[15] = sv49[11] * w[4][0];
        sv49[16] = sv49[12] * w[4][0];
        sv49[17] = w5_c2 * sp[13];
        sv49[18] = w5_c2 * sv49[13];
        sv49[19] = w5_c2 * sv49[14];
        sv49[20] = w5_c2 * sp[14];
        sv49[21] = w5_c2 * sv49[15];
        sv49[22] = w5_c2 * sv49[16];
        sv49[23] = w5_c0 * w5_c0;
        sv49[24] = w5_c1 * w5_c1;
        sv49[25] = sv49[23] + sv49[24];
        sv49[26] = std::sqrt(sv49[25]);
        sv49[27] = w5_c0 * sv49[26];
        sv49[28] = w5_c1 * sv49[26];
        sv49[29] = w0 / sv49[7];
        sv49[30] = sv49[28] * sv49[29];
        sv49[31] = sv49[27] * sv49[29];
        sv49[32] = -1 * sv49[17] + sv49[30];
        sv49[33] = -1 * sv49[20] + sv49[31];
        sv49[34] = sv49[32] + -1 * w[3][1];
        sv49[35] = sv49[33] + -1 * w[3][0];
        sv49[36] = w5_d1_c0 * sp[3];
        sv49[37] = w5_d0_c0 * sp[4];
        sv49[38] = sv49[36] + sv49[37];
        sv49[39] = w5_c1 * sv49[38];
        sv49[40] = w5_c0 * sv49[5];
        sv49[41] = sv49[39] + sv49[40];
        sv49[42] = w5_c1 * sv49[2];
        sv49[43] = w5_d0_c1 * sp[5];
        sv49[44] = w5_d1_c1 * sp[6];
        sv49[45] = sv49[43] + sv49[44];
        sv49[46] = w5_c0 * sv49[45];
        sv49[47] = sv49[42] + sv49[46];
        sv49[48] = sv49[34] + sv49[47];
        sv49[49] = sv49[35] + sv49[41];
        sv49[50] = sv49[38] * w[1][0];
        sv49[51] = sv49[50] * sp[4];
        sv49[52] = sv49[50] * sp[3];
        sv49[53] = sv49[2] * w[1][0];
        sv49[54] = sv49[53] * sp[3];
        sv49[55] = sv49[53] * sp[4];
        sv49[56] = sv49[5] * w[1][0];
        sv49[57] = sv49[56] * sp[5];
        sv49[58] = sv49[56] * sp[6];
        sv49[59] = sv49[45] * w[1][0];
        sv49[60] = sv49[59] * sp[6];
        sv49[61] = sv49[59] * sp[5];
        sv49[62] = sv49[54] + sv49[60];
        sv49[63] = sv49[61] + sv49[55];
        sv49[64] = sv49[57] + sv49[51];
        sv49[65] = sv49[52] + sv49[58];
        sv49[66] = sv49[62] + -1 * sv49[18];
        sv49[67] = sv49[63] + -1 * sv49[19];
        sv49[68] = sv49[64] + -1 * sv49[21];
        sv49[69] = sv49[65] + -1 * sv49[22];
        sv49[70] = sv49[8] * sp[18];
        sv49[71] = sv49[48] * sp[18];
        sv49[72] = sv49[66] * sp[18];
        sv49[73] = sv49[67] * sp[18];
        sv49[74] = sv49[49] * sp[18];
        sv49[75] = sv49[68] * sp[18];
        sv49[76] = sv49[69] * sp[18];
        const double fw0 = sv49[74] * weights49[iq];
        for (int i = 0; i < 6; ++i)
            BF0[i] += fw0 * FE27_C0_Q49[0][iq][i];
        const double fw1 = sv49[75] * weights49[iq];
        for (int i = 0; i < 5; ++i)
            BF1[i] += fw1 * FE27_C0_D10_Q49[0][iq][i];
        const double fw2 = sv49[76] * weights49[iq];
        for (int i = 0; i < 5; ++i)
            BF2[i] += fw2 * FE27_C0_D01_Q49[0][iq][i];
        const double fw3 = sv49[71] * weights49[iq];
        for (int i = 0; i < 6; ++i)
            BF3[i] += fw3 * FE27_C0_Q49[0][iq][i];
        const double fw4 = sv49[73] * weights49[iq];
        for (int i = 0; i < 5; ++i)
            BF4[i] += fw4 * FE27_C0_D10_Q49[0][iq][i];
        const double fw5 = sv49[72] * weights49[iq];
        for (int i = 0; i < 5; ++i)
            BF5[i] += fw5 * FE27_C0_D01_Q49[0][iq][i];
        const double fw6 = sv49[70] * weights49[iq];
        for (int i = 0; i < 3; ++i)
            BF6[i] += fw6 * FE10_C0_Q49[0][iq][i];
    }
    std::fill(A, A + 15, 0.0);
    static const int DM0[5] = { 0, 1, 3, 4, 5 };
    static const int DM1[5] = { 0, 2, 3, 4, 5 };
    static const int DM2[5] = { 6, 7, 9, 10, 11 };
    static const int DM3[5] = { 6, 8, 9, 10, 11 };
    for (int i = 0; i < 6; ++i)
        A[i] += BF0[i];
    for (int i = 0; i < 5; ++i)
        A[DM0[i]] += BF1[i];
    for (int i = 0; i < 5; ++i)
        A[DM1[i]] += BF2[i];
    for (int i = 0; i < 6; ++i)
        A[i + 6] += BF3[i];
    for (int i = 0; i < 5; ++i)
        A[DM2[i]] += BF4[i];
    for (int i = 0; i < 5; ++i)
        A[DM3[i]] += BF5[i];
    for (int i = 0; i < 3; ++i)
        A[i + 12] += BF6[i];
}

extern "C" DLL_EXPORT ufc::cell_integral * create_ffc_form_e8c399db922ccc4f0c7295fb2e3924fa7fa10b78_cell_integral_main_otherwise()
{
  return new ffc_form_e8c399db922ccc4f0c7295fb2e3924fa7fa10b78_cell_integral_main_otherwise();
}


ffc_form_e8c399db922ccc4f0c7295fb2e3924fa7fa10b78_form_main::ffc_form_e8c399db922ccc4f0c7295fb2e3924fa7fa10b78_form_main() : ufc::form()
{
    // Do nothing
}

ffc_form_e8c399db922ccc4f0c7295fb2e3924fa7fa10b78_form_main::~ffc_form_e8c399db922ccc4f0c7295fb2e3924fa7fa10b78_form_main()
{
    // Do nothing
}

const char * ffc_form_e8c399db922ccc4f0c7295fb2e3924fa7fa10b78_form_main::signature() const
{
    return "8c95dd2a7833c9146aa9a5cf0a66921d77e302dfa5fc34097f14888ce5f5ec2a08dd6e4a06988eebb7fd85608e34b845fc4cdc6de5408eaeb19766db2dafa958";
}

std::size_t ffc_form_e8c399db922ccc4f0c7295fb2e3924fa7fa10b78_form_main::rank() const
{
    return 1;
}

std::size_t ffc_form_e8c399db922ccc4f0c7295fb2e3924fa7fa10b78_form_main::num_coefficients() const
{
    return 6;
}

std::size_t ffc_form_e8c399db922ccc4f0c7295fb2e3924fa7fa10b78_form_main::original_coefficient_position(std::size_t i) const
{
    if (i >= 6)
    {
        throw std::runtime_error("Invalid original coefficient index.");
    }
    static const std::vector<std::size_t> position = {0, 1, 2, 3, 4, 5};
    return position[i];
}

ufc::finite_element * ffc_form_e8c399db922ccc4f0c7295fb2e3924fa7fa10b78_form_main::create_coordinate_finite_element() const
{
    return create_ffc_element_d7b725d021aa6ea4a5e7a2456fe169e8a2a498c1_finite_element_main();
}

ufc::dofmap * ffc_form_e8c399db922ccc4f0c7295fb2e3924fa7fa10b78_form_main::create_coordinate_dofmap() const
{
    return create_ffc_element_d7b725d021aa6ea4a5e7a2456fe169e8a2a498c1_dofmap_main();
}

ufc::coordinate_mapping * ffc_form_e8c399db922ccc4f0c7295fb2e3924fa7fa10b78_form_main::create_coordinate_mapping() const
{
    return create_ffc_coordinate_mapping_b443ca5ae3403fe77cb8fa2f9d340af027aafe73_coordinate_mapping_main();
}

ufc::finite_element * ffc_form_e8c399db922ccc4f0c7295fb2e3924fa7fa10b78_form_main::create_finite_element(std::size_t i) const
{
    switch (i)
    {
    case 0:
        return create_ffc_element_4813df87e675bcac8669b799984ca9b202dc7565_finite_element_main();
    case 1:
        return create_ffc_element_2d4ff644b3dd83803fb1e898ba9f33b754e32fa8_finite_element_main();
    case 2:
        return create_ffc_element_ed3ed5a2f9a86cc900f47ff4b527f48bb8bb4793_finite_element_main();
    case 3:
        return create_ffc_element_ed3ed5a2f9a86cc900f47ff4b527f48bb8bb4793_finite_element_main();
    case 4:
        return create_ffc_element_ba753b8a91779c9a545f77b870c2ffe0da55efa8_finite_element_main();
    case 5:
        return create_ffc_element_ed3ed5a2f9a86cc900f47ff4b527f48bb8bb4793_finite_element_main();
    case 6:
        return create_ffc_element_4813df87e675bcac8669b799984ca9b202dc7565_finite_element_main();
    default:
        return nullptr;
    }
}

ufc::dofmap * ffc_form_e8c399db922ccc4f0c7295fb2e3924fa7fa10b78_form_main::create_dofmap(std::size_t i) const
{
    switch (i)
    {
    case 0:
        return create_ffc_element_4813df87e675bcac8669b799984ca9b202dc7565_dofmap_main();
    case 1:
        return create_ffc_element_2d4ff644b3dd83803fb1e898ba9f33b754e32fa8_dofmap_main();
    case 2:
        return create_ffc_element_ed3ed5a2f9a86cc900f47ff4b527f48bb8bb4793_dofmap_main();
    case 3:
        return create_ffc_element_ed3ed5a2f9a86cc900f47ff4b527f48bb8bb4793_dofmap_main();
    case 4:
        return create_ffc_element_ba753b8a91779c9a545f77b870c2ffe0da55efa8_dofmap_main();
    case 5:
        return create_ffc_element_ed3ed5a2f9a86cc900f47ff4b527f48bb8bb4793_dofmap_main();
    case 6:
        return create_ffc_element_4813df87e675bcac8669b799984ca9b202dc7565_dofmap_main();
    default:
        return nullptr;
    }
}

std::size_t ffc_form_e8c399db922ccc4f0c7295fb2e3924fa7fa10b78_form_main::max_cell_subdomain_id() const
{
    return 0;
}

std::size_t ffc_form_e8c399db922ccc4f0c7295fb2e3924fa7fa10b78_form_main::max_exterior_facet_subdomain_id() const
{
    return 0;
}

std::size_t ffc_form_e8c399db922ccc4f0c7295fb2e3924fa7fa10b78_form_main::max_interior_facet_subdomain_id() const
{
    return 0;
}

std::size_t ffc_form_e8c399db922ccc4f0c7295fb2e3924fa7fa10b78_form_main::max_vertex_subdomain_id() const
{
    return 0;
}

std::size_t ffc_form_e8c399db922ccc4f0c7295fb2e3924fa7fa10b78_form_main::max_custom_subdomain_id() const
{
    return 0;
}

std::size_t ffc_form_e8c399db922ccc4f0c7295fb2e3924fa7fa10b78_form_main::max_cutcell_subdomain_id() const
{
    return 0;
}

std::size_t ffc_form_e8c399db922ccc4f0c7295fb2e3924fa7fa10b78_form_main::max_interface_subdomain_id() const
{
    return 0;
}

std::size_t ffc_form_e8c399db922ccc4f0c7295fb2e3924fa7fa10b78_form_main::max_overlap_subdomain_id() const
{
    return 0;
}

bool ffc_form_e8c399db922ccc4f0c7295fb2e3924fa7fa10b78_form_main::has_cell_integrals() const
{
    return true;
}

bool ffc_form_e8c399db922ccc4f0c7295fb2e3924fa7fa10b78_form_main::has_exterior_facet_integrals() const
{
    return false;
}

bool ffc_form_e8c399db922ccc4f0c7295fb2e3924fa7fa10b78_form_main::has_interior_facet_integrals() const
{
    return false;
}

bool ffc_form_e8c399db922ccc4f0c7295fb2e3924fa7fa10b78_form_main::has_vertex_integrals() const
{
    return false;
}

bool ffc_form_e8c399db922ccc4f0c7295fb2e3924fa7fa10b78_form_main::has_custom_integrals() const
{
    return false;
}

bool ffc_form_e8c399db922ccc4f0c7295fb2e3924fa7fa10b78_form_main::has_cutcell_integrals() const
{
    return false;
}

bool ffc_form_e8c399db922ccc4f0c7295fb2e3924fa7fa10b78_form_main::has_interface_integrals() const
{
    return false;
}

bool ffc_form_e8c399db922ccc4f0c7295fb2e3924fa7fa10b78_form_main::has_overlap_integrals() const
{
    return false;
}

ufc::cell_integral * ffc_form_e8c399db922ccc4f0c7295fb2e3924fa7fa10b78_form_main::create_cell_integral(std::size_t subdomain_id) const
{
    return nullptr;
}

ufc::exterior_facet_integral * ffc_form_e8c399db922ccc4f0c7295fb2e3924fa7fa10b78_form_main::create_exterior_facet_integral(std::size_t subdomain_id) const
{
    return nullptr;
}

ufc::interior_facet_integral * ffc_form_e8c399db922ccc4f0c7295fb2e3924fa7fa10b78_form_main::create_interior_facet_integral(std::size_t subdomain_id) const
{
    return nullptr;
}

ufc::vertex_integral * ffc_form_e8c399db922ccc4f0c7295fb2e3924fa7fa10b78_form_main::create_vertex_integral(std::size_t subdomain_id) const
{
    return nullptr;
}

ufc::custom_integral * ffc_form_e8c399db922ccc4f0c7295fb2e3924fa7fa10b78_form_main::create_custom_integral(std::size_t subdomain_id) const
{
    return nullptr;
}

ufc::cutcell_integral * ffc_form_e8c399db922ccc4f0c7295fb2e3924fa7fa10b78_form_main::create_cutcell_integral(std::size_t subdomain_id) const
{
    return nullptr;
}

ufc::interface_integral * ffc_form_e8c399db922ccc4f0c7295fb2e3924fa7fa10b78_form_main::create_interface_integral(std::size_t subdomain_id) const
{
    return nullptr;
}

ufc::overlap_integral * ffc_form_e8c399db922ccc4f0c7295fb2e3924fa7fa10b78_form_main::create_overlap_integral(std::size_t subdomain_id) const
{
    return nullptr;
}

ufc::cell_integral * ffc_form_e8c399db922ccc4f0c7295fb2e3924fa7fa10b78_form_main::create_default_cell_integral() const
{
    return create_ffc_form_e8c399db922ccc4f0c7295fb2e3924fa7fa10b78_cell_integral_main_otherwise();
}

ufc::exterior_facet_integral * ffc_form_e8c399db922ccc4f0c7295fb2e3924fa7fa10b78_form_main::create_default_exterior_facet_integral() const
{
    return nullptr;
}

ufc::interior_facet_integral * ffc_form_e8c399db922ccc4f0c7295fb2e3924fa7fa10b78_form_main::create_default_interior_facet_integral() const
{
    return nullptr;
}

ufc::vertex_integral * ffc_form_e8c399db922ccc4f0c7295fb2e3924fa7fa10b78_form_main::create_default_vertex_integral() const
{
    return nullptr;
}

ufc::custom_integral * ffc_form_e8c399db922ccc4f0c7295fb2e3924fa7fa10b78_form_main::create_default_custom_integral() const
{
    return nullptr;
}

ufc::cutcell_integral * ffc_form_e8c399db922ccc4f0c7295fb2e3924fa7fa10b78_form_main::create_default_cutcell_integral() const
{
    return nullptr;
}

ufc::interface_integral * ffc_form_e8c399db922ccc4f0c7295fb2e3924fa7fa10b78_form_main::create_default_interface_integral() const
{
    return nullptr;
}

ufc::overlap_integral * ffc_form_e8c399db922ccc4f0c7295fb2e3924fa7fa10b78_form_main::create_default_overlap_integral() const
{
    return nullptr;
}

extern "C" DLL_EXPORT ufc::form * create_ffc_form_e8c399db922ccc4f0c7295fb2e3924fa7fa10b78_form_main()
{
  return new ffc_form_e8c399db922ccc4f0c7295fb2e3924fa7fa10b78_form_main();
}

